{
  "houses": [
    "Gryffindor",
    "Hufflepuff",
    "Ravenclaw",
    "Slytherin"
  ],
  "weights": {
    "Gryffindor": {
      "bias": -3.159733311444212,
      "coefficients": [
        0.2355014317337929,
        -1.1247556960918712,
        -0.22201149851956398,
        0.7340286113604104,
        -0.011299053286865507,
        0.81581299753453,
        -0.6336636389963114,
        -0.9462906215925341,
        0.02506776121483365,
        -0.20991494727524904,
        1.029909795237609
      ]
    },
    "Hufflepuff": {
      "bias": -2.163935284200942,
      "coefficients": [
        1.319003498958581,
        1.468563303650302,
        -1.3843137313742677,
        0.5571387491810015,
        -0.9766581090585051,
        -1.3750740511537136,
        0.793124253352246,
        0.6392757683080253,
        -0.3952977222181609,
        -0.11263132079612112,
        -0.6190675249548342
      ]
    },
    "Ravenclaw": {
      "bias": -2.5162039088538193,
      "coefficients": [
        -0.7924277087048407,
        0.6552834307611644,
        0.7863599456790992,
        0.3010001591257044,
        1.0994054896336862,
        1.0901755513017415,
        0.07504641014833924,
        -0.04433162522895326,
        -0.1634291686963815,
        1.032809976934512,
        -0.011753773560401738
      ]
    },
    "Slytherin": {
      "bias": -3.4264817581338973,
      "coefficients": [
        -0.7606473124973245,
        -0.775242570075905,
        0.790771656377944,
        -1.559154175550676,
        -0.3398499367359621,
        -0.6596287515292814,
        -0.07734275261488004,
        0.5239638748658185,
        0.5814742001225667,
        -0.700881567387512,
        -0.5302960200073102
      ]
    }
  },
  "feature_names": [
    "Astronomy",
    "Herbology",
    "Defense Against the Dark Arts",
    "Divination",
    "Muggle Studies",
    "Ancient Runes",
    "History of Magic",
    "Transfiguration",
    "Potions",
    "Charms",
    "Flying"
  ],
  "normalization_params": {
    "mean": [
      39.79713089016475,
      1.1410195296768044,
      -0.3878634974417863,
      3.153909673286355,
      -224.58991486346417,
      495.74797005915786,
      2.963094615116594,
      1030.0969463871304,
      5.95037299278009,
      -243.3744090125,
      21.9580125
    ],
    "std": [
      515.0657196248316,
      5.165539556571556,
      5.162015873475543,
      4.104313679917073,
      480.99266621542756,
      105.11550760219573,
      4.3658605718039025,
      43.65347266632757,
      3.1181848395352114,
      8.783639876017116,
      97.63160206806155
    ]
  },
  "metadata": {
    "features_count": 11,
    "training_samples": 1600,
    "model_type": "Logistic Regression"
  }
}