{
  "houses": [
    "Gryffindor",
    "Hufflepuff",
    "Ravenclaw",
    "Slytherin"
  ],
  "weights": {
    "Gryffindor": {
      "bias": -1.6330431182036529,
      "coefficients": [
        0.15786811136322546,
        -0.6964181954731067,
        -0.15346426968173182,
        0.21509547699641743,
        -0.08823386279440676,
        0.6386337320997452,
        -0.7227149854447282,
        -0.8301115218996256,
        -0.19500044500693353,
        -0.34984637553659315,
        0.745544742189861
      ]
    },
    "Hufflepuff": {
      "bias": -1.0311049532878371,
      "coefficients": [
        0.9451763961156207,
        0.9096732797180902,
        -0.9537842367797825,
        0.4800955556568611,
        -0.5917579104825001,
        -0.9982788128411889,
        0.5772834853245331,
        0.5583075918933089,
        -0.30747426465094285,
        -0.062066581352200306,
        -0.4053245727105673
      ]
    },
    "Ravenclaw": {
      "bias": -1.2944827169360094,
      "coefficients": [
        -0.584039358739422,
        0.42468744918471557,
        0.588636933302169,
        0.357156826522385,
        1.0073537573942688,
        0.8271846238177016,
        0.059185497250727546,
        0.07855691801438362,
        0.018573343976733745,
        0.874787437795144,
        0.0290536029715722
      ]
    },
    "Slytherin": {
      "bias": -1.8255190369728944,
      "coefficients": [
        -0.5172873430841998,
        -0.6854185834092051,
        0.5175139997503918,
        -1.0928289758389815,
        -0.3113360619514327,
        -0.44324781992650697,
        0.03708466356385657,
        0.15408606403050523,
        0.4550843184258026,
        -0.5127490098593073,
        -0.36842536040284457
      ]
    }
  },
  "feature_names": [
    "Astronomy",
    "Herbology",
    "Defense Against the Dark Arts",
    "Divination",
    "Muggle Studies",
    "Ancient Runes",
    "History of Magic",
    "Transfiguration",
    "Potions",
    "Charms",
    "Flying"
  ],
  "normalization_params": {
    "mean": [
      39.79713089016475,
      1.1410195296768044,
      -0.3878634974417863,
      3.153909673286355,
      -224.58991486346417,
      495.74797005915786,
      2.963094615116594,
      1030.0969463871304,
      5.95037299278009,
      -243.3744090125,
      21.9580125
    ],
    "std": [
      515.0657196248316,
      5.165539556571556,
      5.162015873475543,
      4.104313679917073,
      480.99266621542756,
      105.11550760219573,
      4.3658605718039025,
      43.65347266632757,
      3.1181848395352114,
      8.783639876017116,
      97.63160206806155
    ]
  },
  "metadata": {
    "features_count": 11,
    "training_samples": 1600,
    "model_type": "Logistic Regression"
  }
}