{
  "houses": [
    "Gryffindor",
    "Hufflepuff",
    "Ravenclaw",
    "Slytherin"
  ],
  "weights": {
    "Gryffindor": {
      "bias": -3.517716795910487,
      "coefficients": [
        0.2667872115529538,
        -1.6236304765509035,
        -0.2293183014293107,
        1.2607773467067929,
        0.047751670689977266,
        0.6695326496629007,
        -0.3866630690037903,
        -0.8639857641112376,
        0.0555425609344126,
        -0.015332571748147159,
        1.3926100821585727
      ]
    },
    "Hufflepuff": {
      "bias": -2.3729952290181,
      "coefficients": [
        1.2644137741153516,
        1.75372736634091,
        -1.4450698159165754,
        0.49102455362946146,
        -1.2438277747430457,
        -1.3105602487660193,
        0.755721782822901,
        0.4088706062832048,
        -0.3439385271398264,
        -0.09296391440615864,
        -0.7610642482291626
      ]
    },
    "Ravenclaw": {
      "bias": -2.6255922896838557,
      "coefficients": [
        -0.8754311704287614,
        0.8620990847590774,
        0.8377305958428986,
        0.2222326197417127,
        0.925786024402288,
        1.2740337778452324,
        0.12026259161371171,
        -0.189543017421547,
        -0.16704702027278648,
        1.0450299543700843,
        -0.06871272910457418
      ]
    },
    "Slytherin": {
      "bias": -3.7534526867917144,
      "coefficients": [
        -0.8265840443233465,
        -0.6650024303493999,
        0.9359669881279364,
        -1.6277754899021617,
        -0.3301000980241725,
        -0.7104873188224559,
        -0.2530611236462714,
        0.9019914461201143,
        0.6104111933405492,
        -0.8438412639661649,
        -0.5836784677231909
      ]
    }
  },
  "feature_names": [
    "Astronomy",
    "Herbology",
    "Defense Against the Dark Arts",
    "Divination",
    "Muggle Studies",
    "Ancient Runes",
    "History of Magic",
    "Transfiguration",
    "Potions",
    "Charms",
    "Flying"
  ],
  "normalization_params": {
    "mean": [
      39.79713089016475,
      1.1410195296768044,
      -0.3878634974417863,
      3.153909673286355,
      -224.58991486346417,
      495.74797005915786,
      2.963094615116594,
      1030.0969463871304,
      5.95037299278009,
      -243.3744090125,
      21.9580125
    ],
    "std": [
      515.0657196248316,
      5.165539556571556,
      5.162015873475543,
      4.104313679917073,
      480.99266621542756,
      105.11550760219573,
      4.3658605718039025,
      43.65347266632757,
      3.1181848395352114,
      8.783639876017116,
      97.63160206806155
    ]
  },
  "metadata": {
    "features_count": 11,
    "training_samples": 1600,
    "model_type": "Logistic Regression"
  }
}